%YAML:1.0
my_svm: !!opencv-ml-svm
   svm_type: C_SVC
   kernel: { type:LINEAR }
   C: 2.6699999999999999e+000
   term_criteria: { epsilon:1.1920928955078125e-007, iterations:1000 }
   var_all: 136
   var_count: 136
   class_count: 6
   class_labels: !!opencv-matrix
      rows: 1
      cols: 6
      dt: i
      data: [ 0, 1, 2, 3, 4, 5 ]
   sv_total: 15
   support_vectors:
      - [ 2.97831558e-002, -3.32684466e-003, 2.14799643e-002,
          -2.97477189e-003, 6.26654364e-003, -1.33199932e-003,
          2.97722500e-003, -2.74732150e-003, -3.77781503e-003,
          -3.90752731e-003, -1.22429840e-002, -5.44428267e-003,
          -1.25018880e-002, -3.67314555e-003, -5.16086770e-003,
          -5.70752658e-003, -4.82024904e-003, 1.97004387e-003,
          6.68469118e-004, 2.80842208e-003, 5.90021536e-003,
          5.37278317e-003, 3.41124344e-003, 4.84234653e-003,
          2.53808452e-003, 3.25018563e-003, -1.00776479e-002,
          4.36356757e-004, -1.66435000e-002, -5.69468969e-003,
          -4.28775232e-003, -8.12505651e-003, 1.37705011e-002,
          -7.62684084e-003, -1.47591336e-002, -1.84012856e-002,
          -1.63704921e-002, -1.32530248e-002, -2.35135630e-002,
          -5.13880467e-003, -2.45919470e-002, 5.70846861e-003,
          -2.14384999e-002, 1.71609446e-002, -1.77410990e-002,
          -8.61105788e-003, -1.19451471e-002, -1.50914618e-003,
          -1.27340630e-002, 2.63912790e-003, -3.89189459e-003,
          3.88735160e-003, 2.51280516e-003, 8.16997420e-003,
          1.39696179e-002, 6.29742676e-003, 8.18028580e-003,
          -5.81213599e-003, 2.14514323e-003, -1.41469296e-003,
          -5.72718075e-003, -1.23742921e-003, 6.08016737e-003,
          6.04740437e-003, 2.20112060e-003, 7.55814277e-003,
          -1.78309027e-004, -3.69625376e-003, 3.76188429e-003,
          -1.31166847e-002, 1.46948723e-002, -9.48170945e-003,
          4.03210521e-003, 2.33735959e-003, -5.22774598e-003,
          2.51864985e-004, 5.71074570e-003, 9.78501746e-004,
          1.52584575e-002, 1.14201894e-003, 1.65801439e-002,
          9.60491877e-003, 5.72902337e-003, 1.36626055e-002,
          2.66676825e-002, -1.82106902e-004, 1.94728486e-002,
          1.57189113e-003, 1.58591680e-002, -1.09275547e-003,
          2.33376343e-002, -5.78312855e-003, 2.36255471e-002,
          -8.68559536e-003, 2.67270710e-002, -6.24586176e-003,
          -1.29881343e-002, -1.52102141e-002, -3.54386796e-003,
          -2.32931273e-003, 2.50027911e-003, 6.13144226e-003,
          2.63586780e-003, -2.60902895e-003, 1.25505100e-003,
          -2.77068513e-003, 7.66847923e-004, 3.01808747e-003,
          4.50392021e-003, 1.65699553e-002, 9.09158587e-003,
          6.80999737e-003, 1.70359493e-003, 4.08946211e-003,
          1.53941475e-003, 1.37582503e-003, 4.99331532e-003,
          7.70870922e-003, 3.82723549e-004, -3.24632390e-003,
          -1.36949504e-002, -1.63490772e-002, -7.02821650e-003,
          1.07059041e-002, -4.75051114e-003, -1.06616411e-003,
          -6.88134553e-003, -3.64542194e-003, -3.07981344e-003,
          1.69122983e-002, 3.90559231e-004, 7.88827543e-004,
          1.10241410e-003, 3.28419358e-003, -2.60805944e-003,
          9.60624591e-003 ]
      - [ 1.64112356e-002, 4.69360314e-003, 4.70164884e-003,
          3.33000370e-003, 2.99678883e-003, 1.72302127e-003,
          4.03421186e-003, -4.53085377e-004, -3.27277812e-003,
          -2.01132405e-003, -1.47026060e-002, -3.80732096e-003,
          -9.17562749e-003, -4.49444633e-003, -6.68547465e-004,
          -3.01062292e-003, -1.73340683e-004, -8.01321212e-003,
          7.87356868e-003, 3.18245031e-003, 8.48404225e-003,
          4.85804165e-003, 4.44604643e-003, 7.61794532e-003,
          5.86719345e-003, 7.46393716e-003, 6.73651649e-003,
          7.04774912e-003, 1.65360386e-003, 3.98664502e-003,
          -2.92299781e-003, -2.14855289e-004, 5.34076523e-003,
          -2.47193058e-003, 1.39630521e-002, 7.13725894e-005,
          3.32523300e-003, -1.17433292e-003, -4.88293404e-003,
          -2.69913184e-003, -4.26821737e-003, -2.45931372e-003,
          -8.31821654e-003, 1.42995536e-003, -1.38009861e-002,
          -6.27139164e-003, -1.15307197e-002, -2.05534464e-003,
          -9.10507236e-003, -1.05315167e-003, 4.99377784e-004,
          -2.77821440e-003, 6.91788550e-003, -2.21427903e-003,
          2.75097229e-003, 4.84396331e-003, 2.95728119e-003,
          -4.66400012e-003, 1.51686452e-003, -1.44868542e-003,
          3.90006881e-003, 9.65297502e-003, -1.99198117e-003,
          -5.89118339e-003, -1.11112185e-003, 8.41413531e-003,
          -4.83144354e-003, 3.45135550e-003, -3.40590166e-004,
          -8.02240614e-003, 2.85115442e-003, 1.93751592e-003,
          9.18543991e-003, -2.99663079e-004, 7.87438173e-003,
          -5.96717349e-004, 9.87638626e-003, 2.25290260e-003,
          1.25107504e-002, 5.62116154e-004, 5.19313850e-003,
          7.49466592e-004, 9.25190002e-003, -7.09060696e-004,
          1.24338847e-002, -2.60711065e-003, 9.64514073e-003,
          -3.28087108e-003, 1.24226818e-002, 1.38308736e-004,
          1.00099361e-002, -3.01817694e-004, 5.64084388e-003,
          1.79126707e-003, 6.69621956e-003, -4.85652767e-004,
          -1.79713112e-004, -1.89063158e-002, 2.17835302e-003,
          -1.14847943e-002, 2.46876385e-003, -1.05696460e-002,
          5.25219366e-003, -7.97226653e-003, 4.88243939e-004,
          6.03869557e-003, 4.75834357e-003, 1.06429160e-002,
          1.26421303e-002, 1.80027988e-002, -3.31966276e-003,
          1.30583812e-003, -1.06855845e-002, 1.42728689e-003,
          -1.31747760e-002, 2.89454102e-003, -1.37225688e-002,
          -8.44067836e-004, -7.49545079e-003, -1.63889804e-003,
          -3.14519717e-003, -2.22754795e-002, 9.08682309e-003,
          -8.39565974e-003, 1.19523378e-002, 3.31518753e-003,
          8.97144340e-003, 4.23803460e-003, 9.22385603e-003,
          1.76580288e-002, -1.90056637e-002, -1.20802817e-003,
          -1.77291259e-002, 2.67693284e-003, -2.34602522e-002,
          8.77286657e-004 ]
      - [ 1.07348198e-002, -1.19357172e-003, 4.70813876e-003,
          -3.63569497e-003, 2.20669829e-003, -3.81897157e-003,
          6.96185883e-003, -3.12784617e-003, -2.29200185e-003,
          -4.02604649e-003, -3.73854954e-003, -3.76494718e-003,
          -4.34679678e-003, 7.27226783e-004, -8.31663609e-003,
          2.24707474e-004, -7.42978230e-003, -6.09917843e-005,
          -7.16051180e-003, 5.24369441e-003, 6.77122176e-003,
          4.20870958e-003, 3.80380941e-003, 5.66743454e-003,
          -4.18553740e-004, 6.60049077e-003, -3.93601181e-003,
          5.29171992e-003, -8.77580699e-003, 1.07457710e-003,
          -4.71436884e-003, -3.05368425e-003, 9.52635985e-003,
          -6.05390780e-003, 2.85095326e-003, -1.40712969e-003,
          -2.81775673e-003, -5.79653482e-004, -7.70543935e-003,
          -3.04213812e-004, -1.46796722e-002, 9.15493234e-004,
          -6.95514632e-003, 9.71577317e-003, -8.40539113e-003,
          -5.35640959e-003, -1.03007462e-002, -8.93966004e-004,
          8.04747920e-004, -5.98532846e-004, 2.83943233e-003,
          7.07088562e-004, 4.89336951e-003, 5.60242741e-004,
          4.73114708e-003, 1.63519231e-003, 2.00931146e-003,
          -3.05139134e-003, 2.16479856e-003, -2.14584684e-003,
          -2.24558823e-003, 9.29271511e-004, 7.19613768e-003,
          -1.85109733e-003, 5.56476926e-003, 7.30379950e-003,
          4.18354478e-003, 1.02968269e-003, 2.93184211e-003,
          -2.35928013e-003, 1.07663264e-002, -6.62107533e-003,
          3.61062633e-003, -8.76968406e-005, -9.85534769e-003,
          -2.13599298e-003, -3.59223486e-004, 1.41763070e-004,
          3.26899858e-003, 4.50824481e-003, 6.20694505e-003,
          6.22416288e-003, 9.29703005e-004, 8.46291333e-003,
          1.05092358e-002, -4.24853340e-003, 5.18438965e-003,
          2.03816220e-003, -1.52493268e-003, 2.17976095e-003,
          8.18831194e-003, 4.50494466e-004, 5.89493802e-003,
          -6.77562878e-003, 1.11482441e-002, -6.16238452e-003,
          -4.08745045e-003, 7.42270891e-003, -2.27327854e-003,
          -1.78376085e-003, 6.98236050e-003, -7.77684618e-003,
          5.86723536e-003, -3.94416228e-003, 6.75704330e-003,
          -4.42705496e-004, -2.44010496e-003, -2.94867111e-003,
          6.91053574e-004, -5.49811777e-003, -5.62043022e-003,
          -2.53595645e-004, -4.93721431e-003, 2.94047732e-005,
          -3.62302945e-003, -5.84295951e-004, -6.11649640e-003,
          -1.18922137e-004, -5.06372703e-003, 3.75140051e-004,
          -6.81027863e-003, 7.75301689e-003, -3.08517949e-003,
          -3.17639718e-003, -2.80225626e-003, -1.44804118e-003,
          -3.96410888e-003, -2.25825375e-003, -5.93526475e-003,
          -9.65023134e-003, 1.14428084e-002, 2.57327547e-003,
          1.19971279e-002, -2.12255563e-003, 9.74535476e-003,
          -6.16856711e-003 ]
      - [ 4.71996656e-003, -3.41391074e-003, 1.23655582e-002,
          -5.16435644e-003, 1.09423399e-002, -5.51685179e-003,
          1.17368056e-002, -5.21299103e-003, 9.66014864e-004,
          -4.25125100e-003, -6.76528318e-003, -7.51257781e-003,
          1.19492074e-003, -7.83769321e-003, 4.64537833e-003,
          -6.38773106e-003, 7.65548274e-003, -3.74649325e-003,
          -1.54119451e-003, 3.54478927e-003, 2.53827171e-003,
          5.49367443e-003, 3.11598787e-003, 3.47821857e-003,
          -1.67922571e-003, 4.18191869e-003, -7.48055801e-003,
          3.29276174e-003, -1.17566325e-002, 4.03745275e-004,
          -9.73808765e-003, -1.16515509e-003, -9.14730225e-003,
          -1.81277597e-003, 5.77382976e-003, -5.00415964e-003,
          6.69187261e-003, -2.71991710e-004, 9.10196686e-004,
          5.40578447e-004, -1.60943177e-002, -1.38877751e-003,
          -2.80562229e-002, 3.65662272e-004, -2.93496773e-002,
          2.97678914e-003, -9.64759197e-003, 2.08573765e-003,
          1.30959321e-002, -2.75383028e-003, 1.89357568e-002,
          -3.04932822e-003, 5.97671699e-003, -7.63262506e-004,
          3.33160488e-003, 1.26871690e-002, -1.85939297e-003,
          -8.96950532e-003, -3.70581495e-003, -4.08026855e-003,
          3.52323725e-004, 4.20516217e-003, 1.69622619e-002,
          9.85633861e-003, 6.55891281e-003, 7.18614180e-003,
          8.33421294e-003, 5.17125882e-004, 3.98707576e-003,
          -3.59514588e-003, 1.50686121e-002, -7.66288023e-003,
          1.16739119e-003, -2.86219595e-003, -1.21492671e-003,
          -2.32678978e-003, 3.57518671e-003, -4.02351143e-003,
          6.72308169e-003, -5.47313271e-003, 1.39787691e-002,
          2.08381889e-003, 8.46949499e-003, 5.09632658e-003,
          1.30767692e-002, -1.53652232e-004, 8.32319167e-003,
          6.13986223e-004, 3.74677149e-003, -4.44236648e-005,
          6.67743944e-003, -2.16262299e-003, 8.86338670e-003,
          -6.80089137e-003, 1.76591258e-002, -4.06194245e-003,
          -3.53624746e-002, 2.69586761e-002, -6.12809462e-003,
          1.02677790e-003, 7.01744203e-003, -1.06535302e-002,
          1.08679673e-002, -2.29100976e-003, 9.31618270e-003,
          -7.38750095e-004, -7.96462223e-003, -4.68095578e-003,
          -2.52081323e-002, -2.42810100e-002, -6.56526443e-003,
          -6.66253129e-003, 3.35332239e-003, -2.86769425e-003,
          7.63749005e-003, 1.60923460e-003, 2.04786635e-003,
          -1.00794230e-002, -1.03973905e-002, -4.61354794e-004,
          -2.48953961e-002, 2.26446781e-002, 2.95071304e-003,
          -6.29774109e-003, 6.12458866e-003, -2.24753306e-003,
          2.89353263e-003, -2.08187802e-003, -1.88061763e-002,
          -2.55495366e-002, 1.65332984e-002, -2.26022745e-003,
          1.60515644e-002, 5.54893108e-004, 1.19020045e-002,
          -1.62224174e-002 ]
      - [ 9.15467367e-003, 1.08416949e-003, 4.79936460e-003,
          1.13766501e-003, 2.87322770e-003, 7.61335657e-004,
          4.97617293e-003, 2.84990645e-004, 6.92258636e-003,
          6.15470810e-004, 8.23568646e-003, 2.67254305e-004,
          8.83448217e-003, 1.13357638e-003, 5.84928179e-003,
          1.65305368e-003, 3.09125660e-003, 2.98688700e-003,
          4.58025374e-003, -4.36021539e-004, 6.62556756e-003,
          -1.86896723e-005, 5.82969841e-003, 6.06535643e-004,
          2.68414011e-003, 8.95284640e-004, -2.58154911e-003,
          5.81289001e-004, -4.83051315e-003, 1.43814395e-004,
          -2.90542212e-003, -3.79245001e-004, 1.23631291e-003,
          -7.25155754e-004, 1.44865515e-003, -4.23186366e-003,
          -2.01746193e-003, -3.26308399e-003, -6.71328930e-003,
          -2.45993491e-003, -1.03949150e-002, -1.28315575e-003,
          -1.12383282e-002, 3.02033918e-003, -1.11578321e-002,
          -2.87497602e-003, -1.16732232e-002, 1.50798925e-003,
          -6.74855011e-003, 3.02012824e-003, -1.35660765e-003,
          3.92172765e-003, 7.66955549e-004, 4.42360016e-003,
          4.08398313e-003, 7.39119481e-004, 3.28943226e-003,
          5.06744196e-004, 3.29092355e-003, 3.88813741e-003,
          5.96498954e-004, -2.65287841e-003, -2.21734843e-003,
          -6.41485071e-003, -4.28537419e-003, -7.87500571e-003,
          -1.93776644e-003, 2.51101609e-003, -9.40619793e-004,
          5.37639484e-003, -6.39009013e-005, 3.50743323e-003,
          3.32567305e-003, -9.44342697e-004, 3.47131863e-004,
          -1.67478435e-003, 2.56997044e-003, -1.56087650e-003,
          6.47946680e-003, 3.67999630e-004, 7.26934709e-003,
          1.94963033e-003, 4.36292728e-003, 2.17761961e-003,
          6.01302180e-003, -5.93317323e-004, 2.13381229e-003,
          1.40606402e-003, 4.88563790e-004, 1.21955120e-003,
          3.65881482e-003, -2.60603119e-004, 4.00542375e-003,
          -2.97656748e-003, 7.18339393e-003, -2.56088097e-003,
          3.23474384e-003, 5.41475136e-003, 3.82270268e-003,
          3.86865577e-004, 3.19486042e-003, -4.34443681e-003,
          3.78614035e-003, 2.17721262e-003, 3.79348663e-003,
          -1.06797169e-003, 2.54360330e-003, -3.15785920e-003,
          3.16010043e-003, -6.60695182e-003, -6.28905371e-003,
          -5.73759153e-003, -1.07433675e-002, -3.92262498e-003,
          -1.09464210e-002, 5.14691556e-003, -1.03769554e-002,
          -6.29693852e-004, -6.29032915e-003, 3.11831408e-003,
          1.27175590e-003, 5.56885684e-003, -1.50397269e-003,
          -1.06766971e-003, -3.05469992e-004, -5.61674265e-003,
          -1.11034047e-003, -2.39070179e-003, 1.56805967e-003,
          -7.84271769e-003, -4.92133712e-003, -3.95572511e-003,
          -5.21733798e-003, -6.32697530e-003, -5.09050675e-003,
          -1.57733564e-003 ]
      - [ -1.25129847e-002, -3.88030981e-004, -1.04367053e-002,
          -2.04883446e-003, -4.60412307e-003, -4.00371151e-003,
          -1.52801711e-003, -4.53967741e-003, -1.28367520e-003,
          -3.89962620e-003, -4.63866163e-004, -2.21896241e-003,
          2.39366855e-004, -3.53999640e-004, -4.51975409e-003,
          1.92435994e-003, -6.78247958e-003, -1.10820716e-003,
          -3.25023290e-003, 1.32804282e-003, 1.90916588e-003,
          1.63569394e-003, 1.90992455e-003, 3.30028054e-003,
          1.23163068e-003, 4.10768110e-003, 1.11472770e-003,
          4.36220691e-003, 1.44712511e-003, 3.60878115e-003,
          -1.95145153e-003, 2.38166284e-003, -4.65462869e-003,
          6.44449436e-004, 3.68844089e-003, 5.21883648e-003,
          4.62442776e-003, 4.61677648e-003, 7.03279488e-003,
          3.22552840e-003, 8.45554192e-003, 1.66366587e-003,
          6.16183365e-003, -1.56656629e-003, 6.23406563e-003,
          -1.88324950e-003, 7.81434774e-003, -4.45373403e-003,
          6.71179919e-003, -4.73370170e-003, 4.68066661e-003,
          -5.47253480e-003, 2.71742069e-003, -5.76928863e-003,
          2.87593435e-003, -1.93573046e-003, 2.53197714e-003,
          3.91552931e-005, 1.19778875e-003, 6.22999342e-003,
          6.46706205e-004, -1.17805146e-003, 7.04964390e-004,
          -6.55830745e-003, 2.56804912e-003, -3.82622192e-003,
          1.48462714e-003, 4.84117866e-003, 2.43534683e-003,
          7.26813311e-003, 9.11251234e-004, 8.73539317e-003,
          3.36314342e-003, 1.36026787e-003, 4.15057084e-003,
          8.74930527e-004, 2.90644635e-003, -5.06834076e-005,
          3.69004929e-003, 4.92247818e-005, 2.85854097e-003,
          1.60830838e-004, 4.42867912e-003, -9.70798428e-005,
          3.86409508e-003, 1.30238209e-003, 4.11690306e-003,
          -2.45086383e-004, 4.48420225e-003, -9.70131427e-004,
          3.48077365e-003, -1.30248780e-003, 3.43216350e-003,
          1.21560166e-004, 2.93793390e-003, 4.07712068e-004,
          1.95089786e-003, -8.65532458e-003, 2.31823069e-003,
          -1.13886464e-002, 4.71000327e-003, -8.04840308e-003,
          8.56928062e-003, -1.32832478e-003, 6.74811797e-003,
          5.78447897e-003, 4.00199601e-003, 1.07332924e-002,
          5.18516125e-003, 9.07029957e-003, -4.69406974e-003,
          3.18569201e-003, -8.73937830e-003, 5.78189560e-004,
          -1.13721760e-002, -1.70426938e-004, -1.03146611e-002,
          2.12167346e-004, -5.28511591e-003, -3.36568011e-003,
          1.69873633e-003, -8.69932026e-003, 1.10760862e-002,
          -6.58166362e-003, 1.19895507e-002, -1.60487392e-003,
          1.19029973e-002, 5.82525367e-003, 4.23837220e-003,
          8.87323543e-003, -1.15106115e-002, 5.26549411e-004,
          -1.24889296e-002, 5.93813729e-006, -1.20838480e-002,
          3.93027847e-004 ]
      - [ -2.31715571e-003, 1.89895538e-004, -1.29546993e-003,
          -4.39085852e-004, 4.33018757e-003, -2.77059712e-003,
          6.98498217e-003, -1.55082496e-003, 2.62587471e-003,
          -1.04029221e-003, -2.59959698e-003, -2.44706782e-004,
          -1.28879177e-003, -1.23102195e-003, -9.50272806e-005,
          -2.11374747e-004, 3.07050557e-003, 1.17941224e-003,
          1.62270386e-003, 2.95084389e-003, -7.27030856e-004,
          3.64333740e-003, -5.75596560e-003, 4.19940054e-003,
          -1.96909253e-003, 4.60264832e-003, 3.87188839e-003,
          5.31742536e-003, 5.89347258e-003, 4.85308515e-003,
          1.26402604e-003, 2.86140828e-003, -3.85501143e-003,
          1.14882120e-003, -5.74539707e-004, 4.03264817e-003,
          -5.81753382e-004, 3.91520420e-003, 6.17173209e-004,
          3.57795320e-003, 1.19762833e-003, 2.16128118e-003,
          -2.23284285e-003, 1.11893009e-004, -1.22817326e-003,
          -1.09338202e-003, 8.97569174e-004, -4.51585837e-003,
          4.03338112e-003, -4.70433617e-003, 2.71629053e-003,
          -6.61902782e-003, 4.68788063e-003, -8.04784335e-003,
          -1.43198972e-003, -2.87846220e-003, 2.97976984e-003,
          -3.98328266e-005, 6.07456965e-003, -1.91391329e-004,
          6.66568172e-004, -1.40498858e-003, -5.17692941e-004,
          -5.15373470e-003, -1.10185635e-003, -4.73425072e-003,
          -8.23243055e-004, 2.38972556e-004, 1.17573421e-003,
          3.13042034e-003, 2.76543247e-003, 9.00192012e-004,
          -2.75645358e-003, -1.08946825e-003, -2.14626966e-003,
          -1.88325022e-004, -4.20234352e-003, -5.57484396e-004,
          -5.68597671e-003, -1.02168031e-003, -4.66489466e-003,
          -1.50968961e-003, -3.60023789e-003, -2.03082827e-003,
          -2.48927576e-003, 2.10474757e-003, -2.37048749e-004,
          4.93222207e-004, -9.81644145e-004, -2.12461979e-004,
          -8.02872004e-004, -3.06640548e-004, 5.87923161e-004,
          2.81193701e-004, 2.93827994e-004, 1.83017610e-003,
          3.85082909e-003, 1.01988008e-002, 1.68328499e-003,
          2.67720665e-003, 3.76133341e-003, -2.87671597e-003,
          3.71849164e-003, 1.95801351e-003, 4.92072478e-003,
          1.03380793e-004, 2.50055990e-003, -4.21082927e-003,
          1.10949622e-003, -1.15759308e-002, -4.79744049e-003,
          -3.93915176e-003, -4.87739546e-003, -2.02461216e-003,
          -5.49917761e-003, 8.23751034e-004, -4.95809037e-003,
          1.15820987e-003, -1.46208983e-003, 2.71392590e-003,
          4.41017654e-003, 1.18097682e-002, 6.50452590e-003,
          -1.27944746e-003, 6.52680825e-003, -2.66261189e-003,
          6.35627285e-003, -6.42297557e-004, 1.55697088e-003,
          -1.18583310e-002, 2.57940358e-003, -1.02767965e-003,
          1.02149684e-003, 2.14601838e-004, 1.77282724e-003,
          -1.75631011e-003 ]
      - [ -9.39890184e-003, -9.26227367e-004, -5.67311328e-003,
          -4.05093841e-003, 2.14131293e-003, -8.37372523e-003,
          6.02582935e-003, -6.20073639e-003, 2.96781119e-003,
          -5.94886532e-003, -4.23973752e-003, -4.16578026e-003,
          -4.00358997e-003, -4.89879912e-003, -6.59965537e-003,
          -1.21862453e-003, -8.15387641e-004, 2.54240306e-003,
          1.17520231e-003, 1.03901688e-003, 1.01481136e-002,
          3.13355471e-003, 9.13303625e-003, 3.54730827e-003,
          7.47757172e-003, 1.58822420e-003, 9.20743588e-003,
          -1.12514117e-005, 1.27087254e-002, 1.66139405e-004,
          5.45263011e-003, -1.65855582e-003, -6.89602317e-003,
          -3.97624355e-003, 1.16593987e-002, 1.06557766e-002,
          1.20793441e-002, 9.07978788e-003, 9.66753531e-003,
          4.00677416e-003, 2.14376763e-004, -4.63179406e-003,
          -1.38648674e-002, -1.24169653e-002, -1.90244112e-002,
          6.89270021e-003, -4.85479552e-003, -6.31579373e-004,
          6.40804647e-003, -6.33293996e-003, 1.13112470e-002,
          -9.35981423e-003, 9.65217967e-003, -1.17146028e-002,
          -4.27953620e-003, -9.26225213e-004, 4.90858918e-003,
          -3.24528827e-003, 1.10984826e-002, 2.75225611e-003,
          8.07039812e-003, 3.96683393e-003, -3.36174201e-003,
          -1.90909742e-003, -4.04319027e-003, -1.18767302e-002,
          2.05927485e-004, 9.31768306e-003, -1.96880850e-004,
          7.13808974e-003, -1.68655720e-003, -1.88684116e-005,
          -3.96082504e-003, -3.55348922e-003, -1.60114397e-003,
          -1.68467651e-003, -3.06305150e-003, -1.95953017e-003,
          -9.85631905e-003, -7.34722614e-003, -6.76278537e-003,
          -7.74325710e-003, -2.45136884e-003, -6.69904286e-003,
          -1.02456510e-002, 9.24723130e-003, -4.32956126e-003,
          3.71793914e-003, 4.69662846e-005, 3.67214764e-003,
          -2.81945569e-003, 5.52843511e-003, 9.93609545e-004,
          7.62685342e-003, -2.53890548e-003, 9.88262333e-003,
          -1.05769513e-002, 2.82555241e-002, -7.51612103e-003,
          7.65554002e-003, 4.30796179e-004, -3.72213079e-003,
          7.07827043e-004, 1.40957953e-003, -1.79000886e-003,
          1.37238503e-002, -1.13884183e-002, -1.32325001e-003,
          -1.15943206e-002, -2.13517547e-002, -1.22092366e-002,
          1.49645741e-004, 1.69606949e-003, 4.89673112e-003,
          6.12145104e-003, -7.10611790e-003, 1.31652225e-003,
          -2.95948051e-003, -4.50392021e-003, 4.45750216e-003,
          -4.06186469e-003, 3.00376303e-002, 2.65026698e-003,
          -3.52217304e-003, 2.41613179e-003, -2.34138744e-004,
          2.65401951e-003, 8.20642151e-003, -4.26456286e-003,
          -2.17703655e-002, 1.55381020e-002, 1.03784660e-002,
          1.33982711e-002, 8.98810383e-003, 1.48367807e-002,
          -5.50537696e-003 ]
      - [ 2.60979030e-003, -2.05288714e-004, 2.68415874e-003,
          9.46508808e-005, 4.26146016e-003, 1.72109241e-004,
          6.32936368e-003, 6.06439426e-004, 5.97021682e-003,
          1.19086425e-003, 4.22913861e-003, 1.16064912e-003,
          2.82180100e-003, 8.64816830e-004, 9.75469942e-004,
          1.10465824e-003, -9.82590369e-004, 5.16160019e-003,
          1.80691204e-004, -1.93759229e-003, 2.84036971e-003,
          -2.22275802e-003, 3.48926149e-003, -1.88972743e-003,
          4.43179905e-003, -1.72597542e-003, 4.44006827e-003,
          -1.17555354e-003, 3.09360912e-003, -4.81288007e-004,
          1.64119713e-003, -4.23653255e-004, 1.37449312e-003,
          -7.26422004e-004, -1.68404280e-004, -1.39047857e-003,
          -2.81120162e-003, -1.25557464e-003, -4.42799646e-003,
          -1.18312787e-003, -4.84169042e-003, -4.71723324e-004,
          -3.14289727e-003, 1.32101495e-003, -3.74358776e-003,
          -1.25699781e-003, -5.76928398e-003, 5.71319018e-004,
          -5.24984905e-003, 1.39029603e-003, -3.19590722e-003,
          1.52507448e-003, -1.55650498e-003, 1.58558052e-003,
          1.62071054e-004, -6.06358144e-003, 5.77536877e-004,
          1.15902501e-003, 1.73480634e-003, 3.68191255e-003,
          2.75123515e-004, -1.48554763e-003, 1.51444122e-003,
          -7.12380651e-003, -4.51252796e-004, -5.18054515e-003,
          -4.80539282e-004, 6.51913404e-004, 1.61271426e-003,
          8.55450518e-003, 2.94868555e-003, 6.44288119e-003,
          9.15584387e-004, -1.02242571e-003, -2.39328458e-003,
          -2.08584941e-003, -1.40768499e-003, -2.80940114e-003,
          9.17600351e-004, -1.98806450e-003, 2.64423364e-003,
          -4.52188280e-004, 1.68103201e-003, 4.05260507e-004,
          8.91864242e-004, 2.12184293e-003, -1.48019462e-003,
          2.42667180e-003, -2.46956642e-003, 1.81089586e-003,
          1.68828829e-003, 8.68961331e-004, 1.81260158e-003,
          -7.90410384e-004, 3.13190045e-003, 4.08748419e-005,
          5.44526242e-003, 7.52844708e-003, 5.57364477e-003,
          2.97348853e-003, 5.28427679e-003, 1.28185318e-004,
          4.56355605e-003, 4.95577231e-004, 4.17761086e-003,
          2.66520394e-004, 2.82649696e-003, -1.83807639e-003,
          1.91398070e-003, -6.82295254e-003, -6.82492787e-003,
          -4.48692217e-003, -1.05229886e-002, -2.41441233e-003,
          -1.10568209e-002, 1.03270682e-002, -1.00131407e-002,
          2.69274786e-003, -4.92600864e-003, 5.27411513e-003,
          4.94895643e-003, 9.37837828e-003, 3.78947379e-003,
          1.14638777e-003, 4.01966041e-003, -9.91235673e-003,
          2.95932475e-003, -5.11262740e-004, 1.65200711e-003,
          -7.96811283e-003, -5.93090802e-003, -1.74009218e-003,
          -5.97881526e-003, -1.52741722e-003, -4.59363777e-003,
          2.44685914e-003 ]
      - [ 5.99061558e-003, 1.67700418e-004, 5.23463683e-003,
          4.64972079e-004, 4.32614656e-003, 1.01509225e-003,
          2.37952848e-003, 1.74104574e-003, 2.82836286e-003,
          2.05517258e-003, 4.36834805e-003, 1.66428217e-003,
          -6.65689004e-004, 2.86988390e-004, 1.83044502e-003,
          -1.51277019e-003, 6.65451540e-003, 3.74691153e-004,
          -2.02528830e-003, 6.46436180e-004, -6.36418536e-003,
          -5.63088048e-004, -6.28612796e-003, -2.17644079e-003,
          -2.84040556e-003, -1.80769851e-003, 2.24498007e-003,
          -1.10800576e-003, 3.76567664e-003, 5.17025415e-004,
          4.75912727e-003, 6.55343872e-004, 4.46166657e-003,
          1.95047795e-003, -7.19577912e-003, -3.70347197e-003,
          -5.65897301e-003, -2.64460035e-003, -6.91406475e-003,
          -1.52969861e-003, -9.90301836e-003, -9.90811619e-004,
          -9.23923030e-003, 5.33053710e-004, -8.48257449e-003,
          4.84204339e-003, -5.76637499e-003, 4.40028217e-003,
          7.71382183e-004, 2.56131543e-003, 2.32945848e-003,
          2.16753013e-003, 5.11982525e-003, 1.31438440e-003,
          -1.14264910e-003, -3.97993019e-003, 1.03876938e-003,
          5.65767288e-003, 2.61654705e-003, -2.73279077e-003,
          -1.17825135e-003, 2.91984434e-005, -1.73135812e-003,
          -1.13488582e-003, -1.47807947e-003, -8.19581188e-003,
          2.29521724e-003, -3.71347228e-003, -2.96164001e-003,
          7.06969481e-003, -3.87169584e-003, -3.36941378e-003,
          -6.43454026e-003, -1.55076873e-003, -7.07372231e-003,
          -6.48086832e-004, -4.80790390e-003, -1.20879407e-003,
          -7.08453543e-003, -2.09143880e-004, -4.60287463e-003,
          -1.28014677e-003, -8.36024620e-003, 2.59051321e-005,
          -2.96552363e-003, 3.15265526e-004, -1.97645370e-003,
          7.64911645e-004, -4.96299798e-003, -1.10107649e-003,
          -2.19242973e-003, -1.54426263e-003, -1.52152649e-003,
          -2.78949365e-003, 4.24858823e-004, 7.49927567e-005,
          1.43095327e-003, 1.78913530e-002, 2.68407096e-003,
          1.27096232e-002, 4.77705104e-003, 6.28885673e-003,
          -6.83594146e-004, 3.36174341e-003, 1.66868349e-003,
          -1.22834055e-004, -2.72354647e-003, -1.13459984e-002,
          -5.89838065e-003, -2.11645737e-002, -1.07541948e-003,
          -5.74158877e-003, 2.15730560e-003, -2.15169811e-003,
          5.29881055e-003, -9.14209464e-004, 6.03551837e-003,
          2.34203204e-003, 3.11241602e-003, 7.61321047e-003,
          2.40729167e-003, 2.20438298e-002, -1.07505089e-002,
          9.13245138e-003, -1.13693839e-002, -4.21648641e-004,
          -1.20116668e-002, -6.18936028e-003, -3.60597786e-003,
          -2.30823979e-002, 1.66838877e-002, 4.00913385e-004,
          1.72007903e-002, -1.80880525e-004, 1.86052695e-002,
          -4.58712020e-004 ]
      - [ -1.96598610e-003, 8.57178820e-004, 7.71698775e-004,
          1.07120699e-003, 8.68886826e-004, 1.12745760e-003,
          1.89279078e-003, 1.42413040e-003, 2.55074026e-003,
          1.66328019e-003, 2.19164183e-003, 1.19255472e-003,
          1.16438908e-003, 4.55192116e-004, 3.27851297e-003,
          -8.23988288e-004, 6.89140335e-003, 1.97495962e-003,
          1.89703889e-003, 1.29766020e-004, -1.98915577e-003,
          -7.53465691e-004, -9.81912948e-004, -2.55877059e-003,
          -3.71050235e-004, -2.81717605e-003, -1.27409678e-003,
          -2.75054714e-003, -1.45054166e-003, -2.32385611e-003,
          -2.79522821e-004, -1.48083654e-003, 5.27306975e-006,
          -8.31236306e-004, 2.08018324e-003, -3.94035393e-004,
          2.86573172e-003, -1.18620381e-004, 6.75387448e-004,
          -6.99819473e-004, -3.89690115e-003, -2.26472784e-003,
          -7.83199910e-003, -3.82184307e-003, -8.35055858e-003,
          3.96489818e-003, -3.26210540e-003, 2.94102915e-003,
          1.20618555e-003, 1.51901925e-003, 2.76205433e-003,
          1.54257892e-003, 1.36360095e-003, 1.62049930e-003,
          -6.86038565e-003, 1.62612079e-004, -7.85039086e-003,
          -2.05318676e-003, -8.56646243e-003, -3.51747643e-004,
          -8.53282399e-003, 2.09471164e-003, 6.08442444e-003,
          8.83675239e-004, 4.12215199e-003, -3.65298218e-003,
          5.25652990e-003, 5.25697647e-003, 1.91263901e-003,
          7.59702642e-003, 2.65241577e-003, 2.50299391e-003,
          -1.13456204e-004, -3.77759454e-004, -8.04578769e-004,
          -4.02992882e-004, -1.69899710e-003, -1.81633793e-003,
          -4.37243562e-003, -2.92506698e-003, 4.58301307e-004,
          -1.59006030e-003, 5.43023867e-004, -8.24517656e-007,
          -4.97670658e-003, 2.92431423e-003, -2.01457669e-003,
          2.51927203e-003, -2.63182167e-003, 1.43714680e-003,
          -2.06829561e-003, 1.34584517e-003, -1.64545025e-004,
          8.47197429e-004, -1.41883193e-005, 2.25114170e-003,
          -2.50922679e-003, 1.69502459e-002, -6.69052359e-004,
          8.82954616e-003, -6.05051056e-004, 3.72838369e-003,
          -1.38209935e-003, -1.91266183e-003, 1.30206419e-004,
          -3.97469988e-003, -1.44446723e-003, -9.95048322e-003,
          -5.66323707e-003, -1.87073499e-002, -1.17061567e-003,
          -6.88874768e-003, 4.75401524e-003, -2.53265188e-003,
          6.60727173e-003, -1.91928318e-003, 6.35351706e-003,
          1.60663680e-004, 1.87213486e-003, 5.88333933e-003,
          -9.20302700e-004, 1.63201280e-002, -3.12204589e-004,
          2.96086539e-003, -1.68605184e-003, -1.93109352e-003,
          -1.40846567e-003, -3.91485449e-003, -3.42259486e-003,
          -1.73132084e-002, 3.71253723e-003, -2.90862750e-003,
          4.30130307e-003, 4.28625289e-003, 5.13611408e-003,
          3.22081323e-004 ]
      - [ 5.67177078e-003, 2.07490264e-003, 2.44466611e-003,
          2.79364688e-003, 7.07236526e-004, 2.76748231e-003,
          2.04153825e-003, 1.99928880e-003, 3.34716705e-003,
          1.51840504e-003, 1.92424259e-003, 3.75237083e-004,
          3.75823863e-003, -3.76549637e-004, 6.80451002e-003,
          -4.94875014e-004, 6.06803922e-003, 1.20314758e-003,
          5.85078076e-003, -3.15071055e-004, 4.30944143e-003,
          -1.17993084e-004, 3.26967845e-003, -6.53980242e-005,
          3.68422433e-003, -3.74725292e-004, 1.51160278e-003,
          -1.82778502e-004, -1.45968969e-003, 9.16238605e-006,
          5.46323077e-004, -3.18480248e-004, 2.98522762e-003,
          -1.99378148e-004, -3.28761933e-004, -3.20936274e-003,
          -8.96422775e-004, -2.72306800e-003, -3.46169923e-003,
          -2.20102281e-003, -4.34502726e-003, -1.65867887e-003,
          -3.81154707e-003, 3.24238761e-004, -5.68105001e-003,
          -1.96575047e-003, -6.07076613e-003, 1.21187710e-003,
          -4.31716628e-003, 2.60416768e-003, -1.13980530e-003,
          3.71618499e-003, -7.23518431e-004, 4.63765441e-003,
          6.32755808e-004, -1.93364604e-003, -1.69562595e-003,
          -1.89453596e-003, -3.78630171e-003, 7.51429820e-004,
          -5.71023347e-003, -1.99599672e-005, -5.23916795e-004,
          -3.28019680e-003, 9.41019243e-005, -8.09081923e-003,
          3.04766395e-003, 2.63338909e-004, 4.79493756e-004,
          1.06711918e-002, -3.79055768e-004, 4.21138154e-003,
          -6.44833373e-004, 7.42643140e-004, -3.63042252e-003,
          -6.47421461e-004, -2.12004897e-003, -1.24935200e-003,
          1.69516401e-003, -3.32304480e-005, 3.65226693e-003,
          1.34564354e-003, 9.50691930e-004, 2.66820029e-003,
          1.68825185e-003, -7.51879634e-005, -2.38533923e-003,
          1.03694631e-003, -4.77584731e-003, 2.62605579e-004,
          -6.10541611e-004, -5.85140020e-004, 6.23351807e-005,
          -3.52031365e-003, 2.51092645e-003, -2.39200261e-003,
          2.71796045e-004, 1.22021735e-002, 2.52224668e-003,
          8.70594569e-003, 1.79193390e-003, 3.23145883e-003,
          -1.89355691e-004, 6.93205744e-003, 7.26119848e-004,
          -3.57051915e-003, 1.39236415e-003, -8.31244327e-003,
          -1.45879714e-003, -1.27260461e-002, -2.34081247e-003,
          -6.77724974e-003, -6.15319528e-004, -3.23829148e-003,
          -2.22902963e-004, 7.17001176e-003, -5.23100724e-004,
          1.60626892e-003, -2.35254481e-003, 6.01387070e-003,
          1.55929953e-003, 1.28876437e-002, -3.44492891e-003,
          5.46356197e-003, -3.14077036e-003, -7.90067110e-003,
          -3.72211798e-003, -5.17596165e-003, -6.56757475e-005,
          -1.30523434e-002, 2.99652526e-003, -2.91748089e-003,
          3.29643372e-003, -6.82283984e-003, 2.68317689e-003,
          1.46374828e-003 ]
      - [ -3.25508718e-003, 2.17463705e-003, -4.16114414e-003,
          2.71709845e-003, -3.95854656e-003, 3.75988730e-003,
          8.34103339e-005, 1.97604438e-003, 4.44277143e-003,
          9.99703654e-004, 3.16934939e-003, -6.38396188e-004,
          -4.29804204e-004, -2.35586287e-003, -1.32723816e-003,
          -2.70549487e-003, 7.21083581e-003, 1.71462612e-004,
          2.35785288e-003, 1.17445408e-004, 1.07960070e-004,
          7.54514651e-004, 5.60796261e-003, -1.94198394e-003,
          6.69893436e-003, -3.07979272e-003, 2.61497102e-004,
          -3.22847976e-003, -3.63127375e-003, -2.58883252e-003,
          -2.14940635e-003, -3.98413558e-003, -3.82462074e-003,
          -5.66510530e-003, 6.10118406e-003, -3.31151113e-003,
          1.02557987e-002, -2.00273609e-003, 3.89281800e-003,
          -3.81257362e-003, -2.14122259e-003, -5.40960068e-003,
          -1.44705754e-002, -7.11081829e-003, -1.07402019e-002,
          2.41195806e-003, -3.59359605e-004, 1.89618068e-003,
          5.47287380e-003, 1.70951791e-003, 1.03325807e-002,
          1.25558535e-003, 5.51184174e-003, 1.42060523e-003,
          -6.26862794e-003, 1.89663016e-003, 3.88710614e-004,
          2.12159357e-004, 4.80570178e-003, 1.38496677e-003,
          -9.99502093e-003, 5.95948019e-004, -4.93998732e-003,
          1.15601039e-002, -2.21828301e-003, 7.08304765e-003,
          -3.19270953e-003, 2.93090497e-003, -8.27710796e-003,
          2.31081853e-003, -5.56741236e-003, -7.76808849e-003,
          3.43027408e-003, 1.47135972e-004, 6.50906889e-003,
          1.68422761e-003, 2.84348219e-003, 1.83827803e-003,
          -5.29044494e-003, -3.01944185e-003, -6.55730767e-003,
          -5.80623280e-003, -1.12862000e-003, -5.91708580e-003,
          -9.03764367e-003, 2.39881943e-003, 2.47867964e-003,
          -5.77111205e-004, 6.48593763e-003, 5.01308590e-004,
          -2.62085727e-004, 2.43436755e-003, -2.59455922e-003,
          6.95485901e-003, -6.50569936e-003, 8.00229702e-003,
          -1.03267347e-002, 7.38676265e-003, -4.79879469e-004,
          -2.22217734e-003, 9.02002852e-004, -2.67645181e-003,
          6.76135486e-003, -1.09274348e-004, 1.16069091e-003,
          3.18803568e-003, -5.02111018e-003, 1.02657778e-003,
          -1.10655427e-002, -8.29629507e-003, -5.04241697e-003,
          -2.62739323e-003, 3.93868843e-003, -6.22409570e-004,
          6.96168467e-003, -8.61741253e-004, 4.72112373e-003,
          -3.69331962e-003, -2.51765153e-003, 6.94402843e-005,
          -6.95650093e-003, 7.07346853e-003, 3.89970117e-003,
          -2.69716256e-003, 2.73236400e-003, 4.55451780e-004,
          1.37392792e-003, -3.77533899e-004, -7.78752193e-003,
          -7.75007438e-003, 5.08669019e-003, -1.28407148e-003,
          5.69965644e-003, 2.22510993e-004, 5.55082131e-003,
          -4.09325585e-003 ]
      - [ 5.16773015e-003, -5.77413186e-004, 2.22450658e-003,
          5.89719217e-004, 1.97340664e-003, 2.04276456e-003,
          1.69725157e-003, 2.48753233e-003, -5.16990665e-004,
          3.28959641e-003, -3.11192381e-003, 2.14690063e-003,
          -4.86663484e-004, 1.68528012e-003, 1.07754336e-003,
          3.68486647e-003, -2.45785830e-003, 3.44319968e-004,
          1.71883847e-003, -9.80769633e-004, 3.61461984e-003,
          -4.93980711e-004, 1.60113478e-003, 9.39322810e-004,
          2.97800521e-003, -8.56936385e-004, -1.37851015e-003,
          1.41517579e-004, -5.54365246e-003, -9.69642861e-005,
          -1.34364387e-003, -4.17981995e-004, 5.00416104e-003,
          -4.95331478e-004, 6.57555321e-003, -5.61728049e-003,
          4.91759600e-003, -4.09681536e-003, -3.51813505e-003,
          -3.36543680e-003, -9.67136491e-003, -1.61653140e-003,
          -3.27536766e-003, 7.36229680e-003, -2.47930945e-003,
          -9.66182910e-003, -9.80324857e-003, 1.43548823e-003,
          -5.07047586e-003, 3.75572825e-003, 5.30604320e-003,
          5.60822664e-003, 1.07757864e-003, 8.80215690e-003,
          9.93823539e-003, -6.49035501e-004, 8.72615632e-003,
          1.51103537e-004, 1.26802409e-002, 4.23746463e-003,
          4.02486790e-003, -2.75107869e-003, -5.48999850e-003,
          -2.56925868e-003, -1.10933324e-002, -1.34692190e-003,
          -4.93959058e-003, 3.65462527e-003, -1.05188722e-002,
          5.12553519e-003, -8.01707245e-003, 5.42784529e-003,
          -5.60280751e-004, -5.46167896e-004, -1.01218866e-002,
          -5.96790388e-003, -5.20671997e-003, -7.10574770e-003,
          1.06558464e-002, -3.22074955e-003, 9.83122736e-003,
          1.48318161e-003, 4.88510262e-003, 3.44679109e-003,
          5.69167221e-003, 4.97735711e-003, -8.83211568e-003,
          7.95376115e-003, -1.24078747e-002, 8.01336113e-003,
          -3.67947738e-004, 3.56915290e-003, 1.13573985e-003,
          -1.00878486e-003, 6.49956986e-003, 3.85233841e-004,
          7.82444235e-003, 4.87712305e-003, 8.50539561e-003,
          -1.03022589e-003, 7.61756860e-003, 1.11423584e-003,
          7.22480519e-003, -2.02448550e-003, 3.97632970e-003,
          3.87231121e-003, 4.47801314e-003, -1.06410566e-003,
          4.06686123e-003, -1.00910775e-002, -3.46391520e-004,
          -6.95303315e-003, -1.34017423e-003, -6.75406959e-003,
          -3.11698858e-003, 4.47784457e-003, -2.66969646e-003,
          6.37287274e-004, -2.56568147e-003, 1.20104221e-003,
          1.29578763e-003, 5.83816972e-003, 6.06775982e-003,
          7.04690348e-003, 5.28679136e-003, 2.48367316e-004,
          2.15869909e-003, -2.22823161e-004, 6.59121899e-004,
          -1.19216423e-002, -8.98211077e-003, -6.75825961e-003,
          -7.66106043e-003, -2.02620612e-003, -8.80036596e-003,
          -5.47073432e-005 ]
      - [ 4.41693375e-003, -6.19639875e-004, 1.68275146e-003,
          3.03976558e-004, 1.59922149e-003, 1.18445198e-003,
          4.92195925e-003, 1.36808411e-003, 8.53277370e-003,
          2.85634794e-003, 9.06070229e-003, 2.96601816e-003,
          6.42910460e-003, 2.15823622e-003, 3.79779121e-005,
          9.74701252e-004, -3.64231761e-003, 6.79825479e-003,
          6.52991643e-004, -2.62213894e-003, 5.92526421e-003,
          -4.15576901e-003, 9.70242545e-003, -2.65377760e-003,
          8.51929653e-003, -2.44152546e-003, 5.33448672e-003,
          -1.93641230e-003, -5.12758910e-004, -1.57521828e-003,
          -9.03649139e-004, -1.58127071e-003, 3.55831929e-003,
          -1.68858573e-003, -2.94003892e-003, -7.55451759e-003,
          -1.76262984e-003, -6.30336953e-003, -3.29757179e-003,
          -4.16912790e-003, -3.92713677e-003, -2.32355273e-003,
          -3.36029031e-003, 2.54521705e-003, -2.80583132e-004,
          -6.73325220e-003, -3.54881887e-003, -1.11765973e-003,
          -4.63971263e-003, 2.39590439e-003, -2.34160526e-003,
          5.52512752e-003, -6.28054701e-003, 7.05555966e-003,
          1.54050777e-003, -8.16255156e-003, -2.16929219e-003,
          -4.45512123e-003, -2.69493158e-003, 1.09861558e-002,
          -5.94325550e-003, -5.48085384e-003, -5.03539620e-003,
          -1.63323451e-002, -2.62156408e-003, -1.79640502e-002,
          2.09607417e-003, -8.42234003e-004, -3.32242722e-004,
          1.63679849e-002, -2.91792955e-003, 1.24214916e-002,
          -2.92912009e-003, -3.27986060e-003, -4.78207832e-003,
          -3.87440296e-003, -2.90264818e-003, -4.16600611e-003,
          2.92501965e-004, -7.47950224e-004, 2.48105614e-003,
          -3.05540627e-004, 5.41481073e-004, -1.19155164e-004,
          2.98975297e-004, 5.08334837e-004, -3.61191365e-003,
          1.93776668e-003, -3.73475044e-003, 2.00895965e-003,
          6.36206241e-004, 8.27443611e-004, 1.07069616e-003,
          -1.77820027e-003, 2.62664887e-003, -1.94992067e-003,
          1.95526867e-003, 3.48539138e-003, -3.09952913e-004,
          2.85958988e-003, 1.75034604e-003, 7.19244126e-004,
          2.21463750e-004, 9.13840160e-003, 2.22670706e-003,
          -2.95603671e-003, 9.51090711e-004, -4.46486752e-003,
          2.34530238e-003, -6.85981847e-003, -7.61383027e-003,
          -5.89508004e-003, -1.24792168e-002, -3.99114098e-003,
          -1.42598348e-002, 1.60440672e-002, -1.31492587e-002,
          1.63645996e-003, -8.87241308e-003, 2.98885256e-003,
          -9.04043729e-004, 5.22779021e-003, -4.56932001e-003,
          1.68611482e-003, -3.70563683e-003, -1.54057648e-002,
          -3.30175413e-003, -2.52522412e-003, -7.13916437e-004,
          -8.99201445e-003, -8.11498798e-003, -3.58404825e-003,
          -7.70718884e-003, -2.48513394e-003, -7.65931373e-003,
          2.40807259e-003 ]
   decision_functions:
      -
         sv_count: 1
         rho: 7.0194187122975151e+000
         alpha: [ 1. ]
         index: [ 0 ]
      -
         sv_count: 1
         rho: 1.9801453536655039e+001
         alpha: [ 1. ]
         index: [ 1 ]
      -
         sv_count: 1
         rho: 2.9479755124470843e+000
         alpha: [ 1. ]
         index: [ 2 ]
      -
         sv_count: 1
         rho: 2.6563994648708800e+000
         alpha: [ 1. ]
         index: [ 3 ]
      -
         sv_count: 1
         rho: 1.1172907953881022e+000
         alpha: [ 1. ]
         index: [ 4 ]
      -
         sv_count: 1
         rho: 1.2906116683292939e+001
         alpha: [ 1. ]
         index: [ 5 ]
      -
         sv_count: 1
         rho: 2.2192951033625428e+000
         alpha: [ 1. ]
         index: [ 6 ]
      -
         sv_count: 1
         rho: 9.5963981361461126e-001
         alpha: [ 1. ]
         index: [ 7 ]
      -
         sv_count: 1
         rho: -2.9620253462647845e+000
         alpha: [ 1. ]
         index: [ 8 ]
      -
         sv_count: 1
         rho: -1.2041531812811561e+001
         alpha: [ 1. ]
         index: [ 9 ]
      -
         sv_count: 1
         rho: -9.3081305777321521e+000
         alpha: [ 1. ]
         index: [ 10 ]
      -
         sv_count: 1
         rho: -2.9938162035764413e+000
         alpha: [ 1. ]
         index: [ 11 ]
      -
         sv_count: 1
         rho: -3.1008201172778200e+000
         alpha: [ 1. ]
         index: [ 12 ]
      -
         sv_count: 1
         rho: -5.0025099075683013e+000
         alpha: [ 1. ]
         index: [ 13 ]
      -
         sv_count: 1
         rho: -8.0888683152366756e+000
         alpha: [ 1. ]
         index: [ 14 ]
